<?xml version="1.0"?>
<opencv_storage>
<cascade>
  <stageType>BOOST</stageType>
  <featureType>HAAR</featureType>
  <height>20</height>
  <width>20</width>
  <stageParams>
    <boostType>GAB</boostType>
    <minHitRate>9.9900001287460327e-01</minHitRate>
    <maxFalseAlarm>5.0000000000000000e-01</maxFalseAlarm>
    <weightTrimRate>9.4999999999999996e-01</weightTrimRate>
    <maxDepth>1</maxDepth>
    <maxWeakCount>100</maxWeakCount></stageParams>
  <featureParams>
    <maxCatCount>0</maxCatCount>
    <featSize>1</featSize>
    <mode>ALL</mode></featureParams>
  <stageNum>20</stageNum>
  <stages>
    <!-- stage 0 -->
    <_>
      <maxWeakCount>5</maxWeakCount>
      <stageThreshold>-1.8003802299499512e+00</stageThreshold>
      <weakClassifiers>
        <_>
          <internalNodes>
            0 -1 159 -4.7558378428220749e-03</internalNodes>
          <leafValues>
            1.2318840622901917e-01 -7.8773581981658936e-01</leafValues></_>
        <_>
          <internalNodes>
            0 -1 172 -1.3117322232574224e-03</internalNodes>
          <leafValues>
            3.0809289216995239e-01 -6.1059069633483887e-01</leafValues></_>
        <_>
          <internalNodes>
            0 -1 55 -2.6564594358205795e-02</internalNodes>
          <leafValues>
            5.3008949756622314e-01 -4.5311692357063293e-01</leafValues></_>
        <_>
          <internalNodes>
            0 -1 131 -1.0566511191427708e-03</internalNodes>
          <leafValues>
            4.1671040654182434e-01 -5.0213605165481567e-01</leafValues></_>
        <_>
          <internalNodes>
            0 -1 87 -1.9713488873094320e-03</internalNodes>
          <leafValues>
            4.3840411305427551e-01 -4.3000712990760803e-01</leafValues></_></weakClassifiers></_>
    <!-- stage 1 -->
    <_>
      <maxWeakCount>7</maxWeakCount>
      <stageThreshold>-1.1079890727996826e+00</stageThreshold>
      <weakClassifiers>
        <_>
          <internalNodes>
            0 -1 52 -1.7866684123873711e-02</internalNodes>
          <leafValues>
            8.4848487377166748e-01 -5.6151419878005981e-01</leafValues></_>
        <_>
          <internalNodes>
            0 -1 29 4.3797478079795837e-02</internalNodes>
          <leafValues>
            -4.3651291728019714e-01 6.4487630128860474e-01</leafValues></_>
        <_>
          <internalNodes>
            0 -1 184 -5.6855502771213651e-04</internalNodes>
          <leafValues>
            -7.5954931974411011e-01 3.7447449564933777e-01</leafValues></_>
        <_>
          <internalNodes>
            0 -1 170 3.2697985880076885e-03</internalNodes>
          <leafValues>
            3.1516265869140625e-01 -8.3517873287200928e-01</leafValues></_>
        <_>
          <internalNodes>
            0 -1 146 -7.1452297270298004e-03</internalNodes>
          <leafValues>
            4.2288565635681152e-01 -5.4487919807434082e-01</leafValues></_>
        <_>
          <internalNodes>
            0 -1 68 8.3778426051139832e-04</internalNodes>
          <leafValues>
            -6.6480869054794312e-01 3.3760303258895874e-01</leafValues></_>
        <_>
          <internalNodes>
            0 -1 171 -2.6664668694138527e-03</internalNodes>
          <leafValues>
            5.5801850557327271e-01 -3.3218279480934143e-01</leafValues></_></weakClassifiers></_>
    <!-- stage 2 -->
    <_>
      <maxWeakCount>7</maxWeakCount>
      <stageThreshold>-1.1579989194869995e+00</stageThreshold>
      <weakClassifiers>
        <_>
          <internalNodes>
            0 -1 84 1.5864057932049036e-03</internalNodes>
          <leafValues>
            -7.3932582139968872e-01 1.1372549086809158e-01</leafValues></_>
        <_>
          <internalNodes>
            0 -1 142 1.9140037475153804e-03</internalNodes>
          <leafValues>
            -5.6434077024459839e-01 2.9955160617828369e-01</leafValues></_>
        <_>
          <internalNodes>
            0 -1 192 1.0060986969619989e-03</internalNodes>
          <leafValues>
            -3.8930481672286987e-01 4.2795613408088684e-01</leafValues></_>
        <_>
          <internalNodes>
            0 -1 136 1.0534171015024185e-03</internalNodes>
          <leafValues>
            -5.4233789443969727e-01 2.9638585448265076e-01</leafValues></_>
        <_>
          <internalNodes>
            0 -1 153 7.8480842057615519e-04</internalNodes>
          <leafValues>
            2.3474085330963135e-01 -6.8764257431030273e-01</leafValues></_>
        <_>
          <internalNodes>
            0 -1 37 -6.7804619669914246e-02</internalNodes>
          <leafValues>
            3.9884677529335022e-01 -3.8512417674064636e-01</leafValues></_>
        <_>
          <internalNodes>
            0 -1 164 -8.8098458945751190e-03</internalNodes>
          <leafValues>
            5.5370038747787476e-01 -3.1504723429679871e-01</leafValues></_></weakClassifiers></_>
    <!-- stage 3 -->
    <_>
      <maxWeakCount>8</maxWeakCount>
      <stageThreshold>-1.0848332643508911e+00</stageThreshold>
      <weakClassifiers>
        <_>
          <internalNodes>
            0 -1 91 3.5922378301620483e-03</internalNodes>
          <leafValues>
            -6.8161433935165405e-01 1.5748031437397003e-02</leafValues></_>
        <_>
          <internalNodes>
            0 -1 184 -6.2488368712365627e-04</internalNodes>
          <leafValues>
            -7.4246841669082642e-01 1.3380682468414307e-01</leafValues></_>
        <_>
          <internalNodes>
            0 -1 103 -1.6856458969414234e-03</internalNodes>
          <leafValues>
            -8.1580519676208496e-01 1.4759095013141632e-01</leafValues></_>
        <_>
          <internalNodes>
            0 -1 138 1.4454575255513191e-02</internalNodes>
          <leafValues>
            1.4918473362922668e-01 -8.4483057260513306e-01</leafValues></_>
        <_>
          <internalNodes>
            0 -1 32 1.0909669101238251e-01</internalNodes>
          <leafValues>
            1.6763564944267273e-01 -8.0020910501480103e-01</leafValues></_>
        <_>
          <internalNodes>
            0 -1 1 -2.4695808067917824e-02</internalNodes>
          <leafValues>
            8.3560305833816528e-01 -1.7171497642993927e-01</leafValues></_>
        <_>
          <internalNodes>
            0 -1 176 2.5378270074725151e-03</internalNodes>
          <leafValues>
            -2.3899722099304199e-01 4.8459824919700623e-01</leafValues></_>
        <_>
          <internalNodes>
            0 -1 6 -3.2241456210613251e-02</internalNodes>
          <leafValues>
            4.9034872651100159e-01 -2.9407188296318054e-01</leafValues></_></weakClassifiers></_>
    <!-- stage 4 -->
    <_>
      <maxWeakCount>11</maxWeakCount>
      <stageThreshold>-1.2073658704757690e+00</stageThreshold>
      <weakClassifiers>
        <_>
          <internalNodes>
            0 -1 80 -1.7696959897875786e-02</internalNodes>
          <leafValues>
            6.0606062412261963e-01 -5.3627759218215942e-01</leafValues></_>
        <_>
          <internalNodes>
            0 -1 62 3.7250083405524492e-03</internalNodes>
          <leafValues>
            -4.2086294293403625e-01 3.7705379724502563e-01</leafValues></_>
        <_>
          <internalNodes>
            0 -1 90 2.6191025972366333e-03</internalNodes>
          <leafValues>
            -2.6991024613380432e-01 4.9209529161453247e-01</leafValues></_>
        <_>
          <internalNodes>
            0 -1 126 -1.6356434673070908e-02</internalNodes>
          <leafValues>
            -8.0311536788940430e-01 1.9185188412666321e-01</leafValues></_>
        <_>
          <internalNodes>
            0 -1 106 5.1340430974960327e-02</internalNodes>
          <leafValues>
            1.7159874737262726e-01 -7.1142905950546265e-01</leafValues></_>
        <_>
          <internalNodes>
            0 -1 188 -1.7300943145528436e-03</internalNodes>
          <leafValues>
            3.6476293206214905e-01 -3.6047285795211792e-01</leafValues></_>
        <_>
          <internalNodes>
            0 -1 142 2.8683969285339117e-03</internalNodes>
          <leafValues>
            -3.9832442998886108e-01 3.1661623716354370e-01</leafValues></_>
        <_>
          <internalNodes>
            0 -1 21 -7.9190097749233246e-03</internalNodes>
          <leafValues>
            -8.1290030479431152e-01 1.6095446050167084e-01</leafValues></_>
        <_>
          <internalNodes>
            0 -1 61 4.8689264804124832e-03</internalNodes>
          <leafValues>
            -2.0380888879299164e-01 7.2148859500885010e-01</leafValues></_>
        <_>
          <internalNodes>
            0 -1 116 1.9913636147975922e-02</internalNodes>
          <leafValues>
            -1.8104051053524017e-01 6.7681598663330078e-01</leafValues></_>
        <_>
          <internalNodes>
            0 -1 43 1.0048673488199711e-02</internalNodes>
          <leafValues>
            1.4665241539478302e-01 -9.4233745336532593e-01</leafValues></_></weakClassifiers></_>
    <!-- stage 5 -->
    <_>
      <maxWeakCount>12</maxWeakCount>
      <stageThreshold>-1.4920569658279419e+00</stageThreshold>
      <weakClassifiers>
        <_>
          <internalNodes>
            0 -1 48 -3.3894613385200500e-02</internalNodes>
          <leafValues>
            5.9183675050735474e-01 -5.0537633895874023e-01</leafValues></_>
        <_>
          <internalNodes>
            0 -1 75 -1.0666943155229092e-02</internalNodes>
          <leafValues>
            1.9341611862182617e-01 -4.9668374657630920e-01</leafValues></_>
        <_>
          <internalNodes>
            0 -1 169 -6.8450410617515445e-04</internalNodes>
          <leafValues>
            2.8656679391860962e-01 -4.0839567780494690e-01</leafValues></_>
        <_>
          <internalNodes>
            0 -1 121 -2.8585703112185001e-03</internalNodes>
          <leafValues>
            -6.2557584047317505e-01 1.9820968806743622e-01</leafValues></_>
        <_>
          <internalNodes>
            0 -1 150 3.3006961457431316e-03</internalNodes>
          <leafValues>
            1.9532877206802368e-01 -5.6803858280181885e-01</leafValues></_>
        <_>
          <internalNodes>
            0 -1 74 -4.6799997799098492e-03</internalNodes>
          <leafValues>
            -7.8101134300231934e-01 1.3201262056827545e-01</leafValues></_>
        <_>
          <internalNodes>
            0 -1 185 1.0972643271088600e-02</internalNodes>
          <leafValues>
            1.3139712810516357e-01 -7.4485290050506592e-01</leafValues></_>
        <_>
          <internalNodes>
            0 -1 149 -4.9000638537108898e-03</internalNodes>
          <leafValues>
            7.3119419813156128e-01 -1.7775040864944458e-01</leafValues></_>
        <_>
          <internalNodes>
            0 -1 110 -8.0929463729262352e-04</internalNodes>
          <leafValues>
            3.1348562240600586e-01 -3.8171532750129700e-01</leafValues></_>
        <_>
          <internalNodes>
            0 -1 50 -1.4008231461048126e-02</internalNodes>
          <leafValues>
            6.5516775846481323e-01 -1.8395775556564331e-01</leafValues></_>
        <_>
          <internalNodes>
            0 -1 79 5.2403602749109268e-03</internalNodes>
          <leafValues>
            -1.3399584591388702e-01 6.8573522567749023e-01</leafValues></_>
        <_>
          <internalNodes>
            0 -1 167 1.9428750965744257e-04</internalNodes>
          <leafValues>
            2.6376205682754517e-01 -4.8306348919868469e-01</leafValues></_></weakClassifiers></_>
    <!-- stage 6 -->
    <_>
      <maxWeakCount>11</maxWeakCount>
      <stageThreshold>-1.0054296255111694e+00</stageThreshold>
      <weakClassifiers>
        <_>
          <internalNodes>
            0 -1 14 5.1222775131464005e-02</internalNodes>
          <leafValues>
            -5.4991537332534790e-01 2.2935779392719269e-01</leafValues></_>
        <_>
          <internalNodes>
            0 -1 31 8.3926375955343246e-03</internalNodes>
          <leafValues>
            1.0430426150560379e-01 -6.3358056545257568e-01</leafValues></_>
        <_>
          <internalNodes>
            0 -1 140 2.4553546682000160e-03</internalNodes>
          <leafValues>
            -3.3796447515487671e-01 2.6127731800079346e-01</leafValues></_>
        <_>
          <internalNodes>
            0 -1 3 -2.0544965565204620e-01</internalNodes>
          <leafValues>
            6.1684638261795044e-01 -1.4209336042404175e-01</leafValues></_>
        <_>
          <internalNodes>
            0 -1 194 -3.0577290803194046e-02</internalNodes>
          <leafValues>
            -9.2471122741699219e-01 1.1271490156650543e-01</leafValues></_>
        <_>
          <internalNodes>
            0 -1 39 4.1171863675117493e-02</internalNodes>
          <leafValues>
            -2.3222197592258453e-01 4.5432600378990173e-01</leafValues></_>
        <_>
          <internalNodes>
            0 -1 51 -1.0877773165702820e-01</internalNodes>
          <leafValues>
            5.1874864101409912e-01 -2.4551878869533539e-01</leafValues></_>
        <_>
          <internalNodes>
            0 -1 72 3.4876544959843159e-03</internalNodes>
          <leafValues>
            -1.7025387287139893e-01 6.2157559394836426e-01</leafValues></_>
        <_>
          <internalNodes>
            0 -1 132 3.8331504911184311e-03</internalNodes>
          <leafValues>
            -3.7555509805679321e-01 2.8653973340988159e-01</leafValues></_>
        <_>
          <internalNodes>
            0 -1 40 -7.4430748820304871e-02</internalNodes>
          <leafValues>
            -9.2862272262573242e-01 1.1711525171995163e-01</leafValues></_>
        <_>
          <internalNodes>
            0 -1 102 8.0549398262519389e-05</internalNodes>
          <leafValues>
            -4.8593208193778992e-01 2.2174456715583801e-01</leafValues></_></weakClassifiers></_>
    <!-- stage 7 -->
    <_>
      <maxWeakCount>11</maxWeakCount>
      <stageThreshold>-1.0858345031738281e+00</stageThreshold>
      <weakClassifiers>
        <_>
          <internalNodes>
            0 -1 123 -1.3487454503774643e-02</internalNodes>
          <leafValues>
            6.3265305757522583e-01 -5.0844854116439819e-01</leafValues></_>
        <_>
          <internalNodes>
            0 -1 155 -2.2004543279763311e-04</internalNodes>
          <leafValues>
            -7.3334622383117676e-01 1.4822934567928314e-01</leafValues></_>
        <_>
          <internalNodes>
            0 -1 134 1.3265076559036970e-03</internalNodes>
          <leafValues>
            2.1603085100650787e-01 -6.0583275556564331e-01</leafValues></_>
        <_>
          <internalNodes>
            0 -1 144 5.0353142432868481e-04</internalNodes>
          <leafValues>
            -4.8301723599433899e-01 2.7598860859870911e-01</leafValues></_>
        <_>
          <internalNodes>
            0 -1 89 3.2143466174602509e-02</internalNodes>
          <leafValues>
            1.3772171735763550e-01 -8.4392654895782471e-01</leafValues></_>
        <_>
          <internalNodes>
            0 -1 92 -6.0526914894580841e-03</internalNodes>
          <leafValues>
            5.4060292243957520e-01 -2.7419480681419373e-01</leafValues></_>
        <_>
          <internalNodes>
            0 -1 133 6.7070564255118370e-03</internalNodes>
          <leafValues>
            -2.2658519446849823e-01 5.1902413368225098e-01</leafValues></_>
        <_>
          <internalNodes>
            0 -1 147 -6.5953086595982313e-04</internalNodes>
          <leafValues>
            -3.4450295567512512e-01 3.2845211029052734e-01</leafValues></_>
        <_>
          <internalNodes>
            0 -1 93 -3.3611273393034935e-03</internalNodes>
          <leafValues>
            -6.0000121593475342e-01 1.6622546315193176e-01</leafValues></_>
        <_>
          <internalNodes>
            0 -1 47 -1.0604359209537506e-02</internalNodes>
          <leafValues>
            4.9323391914367676e-01 -2.3957778513431549e-01</leafValues></_>
        <_>
          <internalNodes>
            0 -1 7 1.1298324912786484e-02</internalNodes>
          <leafValues>
            -1.9468563795089722e-01 5.9610044956207275e-01</leafValues></_></weakClassifiers></_>
    <!-- stage 8 -->
    <_>
      <maxWeakCount>13</maxWeakCount>
      <stageThreshold>-1.3810797929763794e+00</stageThreshold>
      <weakClassifiers>
        <_>
          <internalNodes>
            0 -1 158 -1.1108838953077793e-02</internalNodes>
          <leafValues>
            5.2727270126342773e-01 -5.1007753610610962e-01</leafValues></_>
        <_>
          <internalNodes>
            0 -1 58 -1.8771885661408305e-03</internalNodes>
          <leafValues>
            2.1808901429176331e-01 -4.0996348857879639e-01</leafValues></_>
        <_>
          <internalNodes>
            0 -1 9 -4.7571159899234772e-02</internalNodes>
          <leafValues>
            -7.1415084600448608e-01 1.7468756437301636e-01</leafValues></_>
        <_>
          <internalNodes>
            0 -1 195 3.4964501857757568e-02</internalNodes>
          <leafValues>
            1.5674775838851929e-01 -7.0093733072280884e-01</leafValues></_>
        <_>
          <internalNodes>
            0 -1 186 -3.4096880699507892e-04</internalNodes>
          <leafValues>
            -5.4858088493347168e-01 1.6947214305400848e-01</leafValues></_>
        <_>
          <internalNodes>
            0 -1 173 -3.1878083944320679e-02</internalNodes>
          <leafValues>
            -7.2182154655456543e-01 1.0983195900917053e-01</leafValues></_>
        <_>
          <internalNodes>
            0 -1 41 -4.7121085226535797e-03</internalNodes>
          <leafValues>
            -6.3881134986877441e-01 1.3924899697303772e-01</leafValues></_>
        <_>
          <internalNodes>
            0 -1 191 -2.2883168421685696e-03</internalNodes>
          <leafValues>
            3.5203781723976135e-01 -2.8525009751319885e-01</leafValues></_>
        <_>
          <internalNodes>
            0 -1 82 2.5698728859424591e-04</internalNodes>
          <leafValues>
            -4.4844406843185425e-01 2.1795929968357086e-01</leafValues></_>
        <_>
          <internalNodes>
            0 -1 96 6.2735639512538910e-03</internalNodes>
          <leafValues>
            -2.0341409742832184e-01 5.6286758184432983e-01</leafValues></_>
        <_>
          <internalNodes>
            0 -1 107 4.6812351793050766e-03</internalNodes>
          <leafValues>
            1.7923200130462646e-01 -5.7013434171676636e-01</leafValues></_>
        <_>
          <internalNodes>
            0 -1 4 -3.4607123583555222e-02</internalNodes>
          <leafValues>
            5.9227854013442993e-01 -1.8504631519317627e-01</leafValues></_>
        <_>
          <internalNodes>
            0 -1 28 -6.7998911254107952e-03</internalNodes>
          <leafValues>
            4.7762909531593323e-01 -2.3337031900882721e-01</leafValues></_></weakClassifiers></_>
    <!-- stage 9 -->
    <_>
      <maxWeakCount>13</maxWeakCount>
      <stageThreshold>-1.2201709747314453e+00</stageThreshold>
      <weakClassifiers>
        <_>
          <internalNodes>
            0 -1 203 -1.4535167254507542e-02</internalNodes>
          <leafValues>
            6.4999997615814209e-01 -4.9393939971923828e-01</leafValues></_>
        <_>
          <internalNodes>
            0 -1 112 2.9324367642402649e-03</internalNodes>
          <leafValues>
            -2.7491182088851929e-01 3.9350229501724243e-01</leafValues></_>
        <_>
          <internalNodes>
            0 -1 17 2.9470060020685196e-02</internalNodes>
          <leafValues>
            1.4482474327087402e-01 -7.3140394687652588e-01</leafValues></_>
        <_>
          <internalNodes>
            0 -1 199 -1.8953088147100061e-04</internalNodes>
          <leafValues>
            3.9096584916114807e-01 -2.8204497694969177e-01</leafValues></_>
        <_>
          <internalNodes>
            0 -1 36 -9.4592925161123276e-03</internalNodes>
          <leafValues>
            4.9481540918350220e-01 -2.0402173697948456e-01</leafValues></_>
        <_>
          <internalNodes>
            0 -1 18 -2.1990856528282166e-01</internalNodes>
          <leafValues>
            8.5777550935745239e-01 -1.1024034768342972e-01</leafValues></_>
        <_>
          <internalNodes>
            0 -1 178 -2.7141731698065996e-04</internalNodes>
          <leafValues>
            3.0992811918258667e-01 -3.8869732618331909e-01</leafValues></_>
        <_>
          <internalNodes>
            0 -1 22 3.1541351228952408e-02</internalNodes>
          <leafValues>
            1.2225431948900223e-01 -8.0277878046035767e-01</leafValues></_>
        <_>
          <internalNodes>
            0 -1 66 1.1616526171565056e-03</internalNodes>
          <leafValues>
            -5.2660119533538818e-01 1.6915731132030487e-01</leafValues></_>
        <_>
          <internalNodes>
            0 -1 154 -1.9485596567392349e-02</internalNodes>
          <leafValues>
            -9.8422646522521973e-01 9.9550858139991760e-02</leafValues></_>
        <_>
          <internalNodes>
            0 -1 33 -2.0544445142149925e-03</internalNodes>
          <leafValues>
            -5.3824651241302490e-01 1.7707759141921997e-01</leafValues></_>
        <_>
          <internalNodes>
            0 -1 11 1.0057827457785606e-02</internalNodes>
          <leafValues>
            -1.7752118408679962e-01 5.8962118625640869e-01</leafValues></_>
        <_>
          <internalNodes>
            0 -1 175 -6.2587903812527657e-05</internalNodes>
          <leafValues>
            2.2474870085716248e-01 -4.3966233730316162e-01</leafValues></_></weakClassifiers></_>
    <!-- stage 10 -->
    <_>
      <maxWeakCount>18</maxWeakCount>
      <stageThreshold>-1.3930113315582275e+00</stageThreshold>
      <weakClassifiers>
        <_>
          <internalNodes>
            0 -1 71 5.8493698015809059e-03</internalNodes>
          <leafValues>
            -5.1910829544067383e-01 3.6111110448837280e-01</leafValues></_>
        <_>
          <internalNodes>
            0 -1 118 -3.5520149394869804e-03</internalNodes>
          <leafValues>
            -7.4723970890045166e-01 8.2555457949638367e-02</leafValues></_>
        <_>
          <internalNodes>
            0 -1 35 -1.0576518252491951e-02</internalNodes>
          <leafValues>
            6.8286210298538208e-01 -1.5099850296974182e-01</leafValues></_>
        <_>
          <internalNodes>
            0 -1 166 -2.0010715525131673e-04</internalNodes>
          <leafValues>
            2.5350874662399292e-01 -4.2529770731925964e-01</leafValues></_>
        <_>
          <internalNodes>
            0 -1 181 -4.6699633821845055e-03</internalNodes>
          <leafValues>
            3.8327962160110474e-01 -2.4838832020759583e-01</leafValues></_>
        <_>
          <internalNodes>
            0 -1 108 -6.9699995219707489e-03</internalNodes>
          <leafValues>
            -8.2732695341110229e-01 1.5301115810871124e-01</leafValues></_>
        <_>
          <internalNodes>
            0 -1 88 -1.6130437143146992e-03</internalNodes>
          <leafValues>
            2.4031803011894226e-01 -4.2256718873977661e-01</leafValues></_>
        <_>
          <internalNodes>
            0 -1 120 -9.5342838903889060e-04</internalNodes>
          <leafValues>
            -5.9532463550567627e-01 1.3250006735324860e-01</leafValues></_>
        <_>
          <internalNodes>
            0 -1 156 4.5443996787071228e-03</internalNodes>
          <leafValues>
            -2.9191520810127258e-01 3.1351086497306824e-01</leafValues></_>
        <_>
          <internalNodes>
            0 -1 64 -1.9265215843915939e-02</internalNodes>
          <leafValues>
            3.1931504607200623e-01 -2.9887330532073975e-01</leafValues></_>
        <_>
          <internalNodes>
            0 -1 2 6.9675706326961517e-02</internalNodes>
          <leafValues>
            -1.7795951664447784e-01 6.0201996564865112e-01</leafValues></_>
        <_>
          <internalNodes>
            0 -1 130 -4.7360584139823914e-03</internalNodes>
          <leafValues>
            4.9782145023345947e-01 -1.9526538252830505e-01</leafValues></_>
        <_>
          <internalNodes>
            0 -1 145 6.3954549841582775e-04</internalNodes>
          <leafValues>
            -3.4359180927276611e-01 2.5894546508789062e-01</leafValues></_>
        <_>
          <internalNodes>
            0 -1 38 1.7242647707462311e-02</internalNodes>
          <leafValues>
            -1.6445888578891754e-01 5.8595639467239380e-01</leafValues></_>
        <_>
          <internalNodes>
            0 -1 53 -1.0536536574363708e-02</internalNodes>
          <leafValues>
            4.6801844239234924e-01 -2.2405691444873810e-01</leafValues></_>
        <_>
          <internalNodes>
            0 -1 24 -6.4450547099113464e-02</internalNodes>
          <leafValues>
            5.9275078773498535e-01 -1.5742045640945435e-01</leafValues></_>
        <_>
          <internalNodes>
            0 -1 165 -1.8041592091321945e-02</internalNodes>
          <leafValues>
            3.3317112922668457e-01 -3.4192577004432678e-01</leafValues></_>
        <_>
          <internalNodes>
            0 -1 95 -9.3509908765554428e-05</internalNodes>
          <leafValues>
            2.4430863559246063e-01 -3.7277728319168091e-01</leafValues></_></weakClassifiers></_>
    <!-- stage 11 -->
    <_>
      <maxWeakCount>11</maxWeakCount>
      <stageThreshold>-9.8800855875015259e-01</stageThreshold>
      <weakClassifiers>
        <_>
          <internalNodes>
            0 -1 204 -2.0296730101108551e-02</internalNodes>
          <leafValues>
            6.3636362552642822e-01 -5.0000000000000000e-01</leafValues></_>
        <_>
          <internalNodes>
            0 -1 141 -9.1483518481254578e-03</internalNodes>
          <leafValues>
            -7.0511549711227417e-01 5.7570625096559525e-02</leafValues></_>
        <_>
          <internalNodes>
            0 -1 197 3.0557229183614254e-03</internalNodes>
          <leafValues>
            1.7346753180027008e-01 -5.0229322910308838e-01</leafValues></_>
        <_>
          <internalNodes>
            0 -1 171 -1.7016314668580890e-03</internalNodes>
          <leafValues>
            2.9969769716262817e-01 -2.6612198352813721e-01</leafValues></_>
        <_>
          <internalNodes>
            0 -1 180 -8.0806110054254532e-03</internalNodes>
          <leafValues>
            -5.6113010644912720e-01 1.8011213839054108e-01</leafValues></_>
        <_>
          <internalNodes>
            0 -1 137 1.4568157494068146e-03</internalNodes>
          <leafValues>
            -3.0189320445060730e-01 3.3862990140914917e-01</leafValues></_>
        <_>
          <internalNodes>
            0 -1 182 2.0172998309135437e-02</internalNodes>
          <leafValues>
            -2.2554306685924530e-01 4.6060362458229065e-01</leafValues></_>
        <_>
          <internalNodes>
            0 -1 125 1.8730835290625691e-04</internalNodes>
          <leafValues>
            -4.1286385059356689e-01 2.9888883233070374e-01</leafValues></_>
        <_>
          <internalNodes>
            0 -1 198 5.1245931535959244e-03</internalNodes>
          <leafValues>
            -2.4485474824905396e-01 4.2046213150024414e-01</leafValues></_>
        <_>
          <internalNodes>
            0 -1 19 1.4915782958269119e-02</internalNodes>
          <leafValues>
            1.9365932047367096e-01 -5.1978617906570435e-01</leafValues></_>
        <_>
          <internalNodes>
            0 -1 5 -5.8548420667648315e-02</internalNodes>
          <leafValues>
            7.0193839073181152e-01 -1.4482448995113373e-01</leafValues></_></weakClassifiers></_>
    <!-- stage 12 -->
    <_>
      <maxWeakCount>11</maxWeakCount>
      <stageThreshold>-1.0661667585372925e+00</stageThreshold>
      <weakClassifiers>
        <_>
          <internalNodes>
            0 -1 12 -1.3577893376350403e-02</internalNodes>
          <leafValues>
            8.6206895112991333e-01 -4.8435172438621521e-01</leafValues></_>
        <_>
          <internalNodes>
            0 -1 81 9.8528864327818155e-04</internalNodes>
          <leafValues>
            -4.8559355735778809e-01 1.9438898563385010e-01</leafValues></_>
        <_>
          <internalNodes>
            0 -1 124 -3.0027688480913639e-03</internalNodes>
          <leafValues>
            -8.2918310165405273e-01 1.1597687751054764e-01</leafValues></_>
        <_>
          <internalNodes>
            0 -1 83 1.6630154568701982e-03</internalNodes>
          <leafValues>
            -1.8270997703075409e-01 5.3102970123291016e-01</leafValues></_>
        <_>
          <internalNodes>
            0 -1 148 1.7220679670572281e-02</internalNodes>
          <leafValues>
            1.6477610170841217e-01 -7.8341382741928101e-01</leafValues></_>
        <_>
          <internalNodes>
            0 -1 59 6.7678429186344147e-03</internalNodes>
          <leafValues>
            -1.7630116641521454e-01 7.5977140665054321e-01</leafValues></_>
        <_>
          <internalNodes>
            0 -1 179 -2.1024465560913086e-02</internalNodes>
          <leafValues>
            -8.8855874538421631e-01 1.6041038930416107e-01</leafValues></_>
        <_>
          <internalNodes>
            0 -1 46 7.7772773802280426e-03</internalNodes>
          <leafValues>
            1.5761500597000122e-01 -4.7258788347244263e-01</leafValues></_>
        <_>
          <internalNodes>
            0 -1 0 7.1057211607694626e-03</internalNodes>
          <leafValues>
            -1.6017450392246246e-01 5.9805846214294434e-01</leafValues></_>
        <_>
          <internalNodes>
            0 -1 25 -4.2751032859086990e-02</internalNodes>
          <leafValues>
            -7.1586430072784424e-01 1.4915558695793152e-01</leafValues></_>
        <_>
          <internalNodes>
            0 -1 163 -1.6226420179009438e-02</internalNodes>
          <leafValues>
            4.9027043581008911e-01 -2.2022806107997894e-01</leafValues></_></weakClassifiers></_>
    <!-- stage 13 -->
    <_>
      <maxWeakCount>12</maxWeakCount>
      <stageThreshold>-1.2482857704162598e+00</stageThreshold>
      <weakClassifiers>
        <_>
          <internalNodes>
            0 -1 69 8.2348305732011795e-03</internalNodes>
          <leafValues>
            -4.8358207941055298e-01 8.0000001192092896e-01</leafValues></_>
        <_>
          <internalNodes>
            0 -1 34 -2.1304814144968987e-02</internalNodes>
          <leafValues>
            6.9480669498443604e-01 -1.5943638980388641e-01</leafValues></_>
        <_>
          <internalNodes>
            0 -1 104 -1.7961233388632536e-03</internalNodes>
          <leafValues>
            -4.4708260893821716e-01 1.9679631292819977e-01</leafValues></_>
        <_>
          <internalNodes>
            0 -1 20 4.0593408048152924e-02</internalNodes>
          <leafValues>
            1.1518841236829758e-01 -7.2398364543914795e-01</leafValues></_>
        <_>
          <internalNodes>
            0 -1 117 -4.2693734169006348e-02</internalNodes>
          <leafValues>
            -7.7961248159408569e-01 9.8044082522392273e-02</leafValues></_>
        <_>
          <internalNodes>
            0 -1 113 7.3568411171436310e-03</internalNodes>
          <leafValues>
            -1.6050209105014801e-01 5.8071798086166382e-01</leafValues></_>
        <_>
          <internalNodes>
            0 -1 76 1.2400008738040924e-02</internalNodes>
          <leafValues>
            1.2521466612815857e-01 -9.2758190631866455e-01</leafValues></_>
        <_>
          <internalNodes>
            0 -1 183 1.8782878760248423e-03</internalNodes>
          <leafValues>
            -2.5067448616027832e-01 4.2244145274162292e-01</leafValues></_>
        <_>
          <internalNodes>
            0 -1 15 5.9811852872371674e-02</internalNodes>
          <leafValues>
            -1.1111294478178024e-01 8.0113476514816284e-01</leafValues></_>
        <_>
          <internalNodes>
            0 -1 115 -5.1085273735225201e-03</internalNodes>
          <leafValues>
            5.8942210674285889e-01 -1.2342247366905212e-01</leafValues></_>
        <_>
          <internalNodes>
            0 -1 143 7.5933407060801983e-05</internalNodes>
          <leafValues>
            -4.4501930475234985e-01 2.0674276351928711e-01</leafValues></_>
        <_>
          <internalNodes>
            0 -1 78 3.2278563827276230e-02</internalNodes>
          <leafValues>
            -1.4712060987949371e-01 7.2364324331283569e-01</leafValues></_></weakClassifiers></_>
    <!-- stage 14 -->
    <_>
      <maxWeakCount>14</maxWeakCount>
      <stageThreshold>-1.1418409347534180e+00</stageThreshold>
      <weakClassifiers>
        <_>
          <internalNodes>
            0 -1 27 -3.2625228166580200e-02</internalNodes>
          <leafValues>
            5.7446807622909546e-01 -5.0076568126678467e-01</leafValues></_>
        <_>
          <internalNodes>
            0 -1 111 5.2846921607851982e-03</internalNodes>
          <leafValues>
            -3.9640712738037109e-01 2.2348846495151520e-01</leafValues></_>
        <_>
          <internalNodes>
            0 -1 135 3.7541054189205170e-02</internalNodes>
          <leafValues>
            2.8274223208427429e-01 -3.4588485956192017e-01</leafValues></_>
        <_>
          <internalNodes>
            0 -1 174 7.9219359904527664e-03</internalNodes>
          <leafValues>
            -3.9406529068946838e-01 2.2930626571178436e-01</leafValues></_>
        <_>
          <internalNodes>
            0 -1 26 7.5867995619773865e-03</internalNodes>
          <leafValues>
            -1.5756118297576904e-01 5.1425492763519287e-01</leafValues></_>
        <_>
          <internalNodes>
            0 -1 8 -2.4550387635827065e-02</internalNodes>
          <leafValues>
            -8.1098413467407227e-01 1.1300812661647797e-01</leafValues></_>
        <_>
          <internalNodes>
            0 -1 202 2.0923984702676535e-03</internalNodes>
          <leafValues>
            1.9296173751354218e-01 -4.2955991625785828e-01</leafValues></_>
        <_>
          <internalNodes>
            0 -1 42 -9.1334892204031348e-04</internalNodes>
          <leafValues>
            3.9761602878570557e-01 -2.3628239333629608e-01</leafValues></_>
        <_>
          <internalNodes>
            0 -1 193 1.2807548046112061e-02</internalNodes>
          <leafValues>
            1.5131340920925140e-01 -5.9509313106536865e-01</leafValues></_>
        <_>
          <internalNodes>
            0 -1 114 -2.4871133267879486e-02</internalNodes>
          <leafValues>
            8.1710857152938843e-01 -1.2015829980373383e-01</leafValues></_>
        <_>
          <internalNodes>
            0 -1 105 -6.3795247115194798e-05</internalNodes>
          <leafValues>
            -4.3864795565605164e-01 2.2543014585971832e-01</leafValues></_>
        <_>
          <internalNodes>
            0 -1 187 1.5153298154473305e-03</internalNodes>
          <leafValues>
            -1.8377368152141571e-01 5.5679768323898315e-01</leafValues></_>
        <_>
          <internalNodes>
            0 -1 57 -1.5159420669078827e-01</internalNodes>
          <leafValues>
            8.2750999927520752e-01 -1.1673068255186081e-01</leafValues></_>
        <_>
          <internalNodes>
            0 -1 190 4.8181740567088127e-03</internalNodes>
          <leafValues>
            2.0618680119514465e-01 -6.1054193973541260e-01</leafValues></_></weakClassifiers></_>
    <!-- stage 15 -->
    <_>
      <maxWeakCount>13</maxWeakCount>
      <stageThreshold>-1.2305910587310791e+00</stageThreshold>
      <weakClassifiers>
        <_>
          <internalNodes>
            0 -1 139 3.7544351071119308e-03</internalNodes>
          <leafValues>
            -5.1159197092056274e-01 5.8490568399429321e-01</leafValues></_>
        <_>
          <internalNodes>
            0 -1 88 -1.5570521354675293e-03</internalNodes>
          <leafValues>
            1.9254660606384277e-01 -5.5130374431610107e-01</leafValues></_>
        <_>
          <internalNodes>
            0 -1 161 3.6890519550070167e-04</internalNodes>
          <leafValues>
            2.7266266942024231e-01 -4.1011336445808411e-01</leafValues></_>
        <_>
          <internalNodes>
            0 -1 85 -1.2049005366861820e-02</internalNodes>
          <leafValues>
            -2.5359445810317993e-01 3.4232532978057861e-01</leafValues></_>
        <_>
          <internalNodes>
            0 -1 94 1.5098713338375092e-03</internalNodes>
          <leafValues>
            -2.0811806619167328e-01 4.1740491986274719e-01</leafValues></_>
        <_>
          <internalNodes>
            0 -1 151 -5.2146073430776596e-03</internalNodes>
          <leafValues>
            -6.2490129470825195e-01 1.3168880343437195e-01</leafValues></_>
        <_>
          <internalNodes>
            0 -1 109 5.9076794423162937e-03</internalNodes>
          <leafValues>
            -2.1766294538974762e-01 4.7471484541893005e-01</leafValues></_>
        <_>
          <internalNodes>
            0 -1 100 2.1399394609034061e-03</internalNodes>
          <leafValues>
            1.7642739415168762e-01 -6.0189551115036011e-01</leafValues></_>
        <_>
          <internalNodes>
            0 -1 49 1.8050858750939369e-02</internalNodes>
          <leafValues>
            -1.3354827463626862e-01 8.1632745265960693e-01</leafValues></_>
        <_>
          <internalNodes>
            0 -1 49 -1.3799875974655151e-02</internalNodes>
          <leafValues>
            7.0192307233810425e-01 -1.1462617665529251e-01</leafValues></_>
        <_>
          <internalNodes>
            0 -1 101 -2.3085935972630978e-03</internalNodes>
          <leafValues>
            -6.3247549533843994e-01 1.5853655338287354e-01</leafValues></_>
        <_>
          <internalNodes>
            0 -1 157 1.5338952653110027e-03</internalNodes>
          <leafValues>
            -3.5384523868560791e-01 2.8347751498222351e-01</leafValues></_>
        <_>
          <internalNodes>
            0 -1 63 3.6612689495086670e-02</internalNodes>
          <leafValues>
            -2.5711861252784729e-01 4.6124070882797241e-01</leafValues></_></weakClassifiers></_>
    <!-- stage 16 -->
    <_>
      <maxWeakCount>9</maxWeakCount>
      <stageThreshold>-1.2935047149658203e+00</stageThreshold>
      <weakClassifiers>
        <_>
          <internalNodes>
            0 -1 122 3.7908978760242462e-02</internalNodes>
          <leafValues>
            -5.0914633274078369e-01 7.7272725105285645e-01</leafValues></_>
        <_>
          <internalNodes>
            0 -1 67 6.0805096291005611e-04</internalNodes>
          <leafValues>
            1.8897438049316406e-01 -5.9710818529129028e-01</leafValues></_>
        <_>
          <internalNodes>
            0 -1 162 -4.9600739032030106e-02</internalNodes>
          <leafValues>
            6.1135268211364746e-01 -1.5865814685821533e-01</leafValues></_>
        <_>
          <internalNodes>
            0 -1 73 5.2211638540029526e-03</internalNodes>
          <leafValues>
            4.2760536074638367e-01 -2.7918505668640137e-01</leafValues></_>
        <_>
          <internalNodes>
            0 -1 65 -6.2276236712932587e-03</internalNodes>
          <leafValues>
            -5.9058541059494019e-01 1.8287605047225952e-01</leafValues></_>
        <_>
          <internalNodes>
            0 -1 128 1.5968321822583675e-03</internalNodes>
          <leafValues>
            -2.4517637491226196e-01 4.7473114728927612e-01</leafValues></_>
        <_>
          <internalNodes>
            0 -1 77 2.0769427064806223e-03</internalNodes>
          <leafValues>
            2.1860422194004059e-01 -5.1331615447998047e-01</leafValues></_>
        <_>
          <internalNodes>
            0 -1 201 3.5601399838924408e-02</internalNodes>
          <leafValues>
            -1.4048957824707031e-01 8.0080097913742065e-01</leafValues></_>
        <_>
          <internalNodes>
            0 -1 45 -6.7908763885498047e-03</internalNodes>
          <leafValues>
            -6.5748411417007446e-01 1.8061651289463043e-01</leafValues></_></weakClassifiers></_>
    <!-- stage 17 -->
    <_>
      <maxWeakCount>10</maxWeakCount>
      <stageThreshold>-1.1445143222808838e+00</stageThreshold>
      <weakClassifiers>
        <_>
          <internalNodes>
            0 -1 127 2.8525837697088718e-03</internalNodes>
          <leafValues>
            -5.7404327392578125e-01 4.5454546809196472e-01</leafValues></_>
        <_>
          <internalNodes>
            0 -1 189 1.2868811609223485e-04</internalNodes>
          <leafValues>
            -3.8224667310714722e-01 3.5834950208663940e-01</leafValues></_>
        <_>
          <internalNodes>
            0 -1 160 9.8680369555950165e-03</internalNodes>
          <leafValues>
            -2.2343696653842926e-01 6.0703712701797485e-01</leafValues></_>
        <_>
          <internalNodes>
            0 -1 168 3.8717832649126649e-04</internalNodes>
          <leafValues>
            1.9625911116600037e-01 -6.7839133739471436e-01</leafValues></_>
        <_>
          <internalNodes>
            0 -1 177 -9.5044337213039398e-03</internalNodes>
          <leafValues>
            5.5964446067810059e-01 -2.3541545867919922e-01</leafValues></_>
        <_>
          <internalNodes>
            0 -1 99 2.6050661108456552e-04</internalNodes>
          <leafValues>
            -3.1009668111801147e-01 4.2404726147651672e-01</leafValues></_>
        <_>
          <internalNodes>
            0 -1 86 1.7142796423286200e-03</internalNodes>
          <leafValues>
            -2.5731039047241211e-01 5.6694757938385010e-01</leafValues></_>
        <_>
          <internalNodes>
            0 -1 13 8.4870569407939911e-03</internalNodes>
          <leafValues>
            2.0362751185894012e-01 -7.5624459981918335e-01</leafValues></_>
        <_>
          <internalNodes>
            0 -1 30 -1.4259542804211378e-03</internalNodes>
          <leafValues>
            -5.9234446287155151e-01 2.3328207433223724e-01</leafValues></_>
        <_>
          <internalNodes>
            0 -1 129 -1.3278571423143148e-03</internalNodes>
          <leafValues>
            3.9508357644081116e-01 -4.0633186697959900e-01</leafValues></_></weakClassifiers></_>
    <!-- stage 18 -->
    <_>
      <maxWeakCount>8</maxWeakCount>
      <stageThreshold>-1.4218468666076660e+00</stageThreshold>
      <weakClassifiers>
        <_>
          <internalNodes>
            0 -1 10 3.8930386304855347e-02</internalNodes>
          <leafValues>
            -5.6006240844726562e-01 1.</leafValues></_>
        <_>
          <internalNodes>
            0 -1 97 -4.3638218194246292e-03</internalNodes>
          <leafValues>
            7.7434271574020386e-01 -3.0981090664863586e-01</leafValues></_>
        <_>
          <internalNodes>
            0 -1 16 9.5654895994812250e-04</internalNodes>
          <leafValues>
            -2.2047486901283264e-01 7.2316467761993408e-01</leafValues></_>
        <_>
          <internalNodes>
            0 -1 152 4.8680929467082024e-04</internalNodes>
          <leafValues>
            3.5701727867126465e-01 -5.0475066900253296e-01</leafValues></_>
        <_>
          <internalNodes>
            0 -1 119 9.0049533173441887e-03</internalNodes>
          <leafValues>
            -3.0710336565971375e-01 6.7068356275558472e-01</leafValues></_>
        <_>
          <internalNodes>
            0 -1 56 -1.1795379221439362e-02</internalNodes>
          <leafValues>
            -6.8242418766021729e-01 3.6067280173301697e-01</leafValues></_>
        <_>
          <internalNodes>
            0 -1 23 -1.2405712157487869e-02</internalNodes>
          <leafValues>
            9.5016950368881226e-01 -2.2885435819625854e-01</leafValues></_>
        <_>
          <internalNodes>
            0 -1 70 2.7351605240255594e-04</internalNodes>
          <leafValues>
            4.1384690999984741e-01 -5.3931176662445068e-01</leafValues></_></weakClassifiers></_>
    <!-- stage 19 -->
    <_>
      <maxWeakCount>6</maxWeakCount>
      <stageThreshold>-1.1899682283401489e+00</stageThreshold>
      <weakClassifiers>
        <_>
          <internalNodes>
            0 -1 60 -3.5146181471645832e-03</internalNodes>
          <leafValues>
            1. -6.0513645410537720e-01</leafValues></_>
        <_>
          <internalNodes>
            0 -1 44 -2.6736527215689421e-03</internalNodes>
          <leafValues>
            -6.7103058099746704e-01 4.2840734124183655e-01</leafValues></_>
        <_>
          <internalNodes>
            0 -1 196 -1.1543670669198036e-02</internalNodes>
          <leafValues>
            -6.5129971504211426e-01 5.5819225311279297e-01</leafValues></_>
        <_>
          <internalNodes>
            0 -1 54 1.5146809164434671e-03</internalNodes>
          <leafValues>
            6.3908886909484863e-01 -4.8295789957046509e-01</leafValues></_>
        <_>
          <internalNodes>
            0 -1 98 -3.4291236661374569e-03</internalNodes>
          <leafValues>
            -5.8320105075836182e-01 6.5619641542434692e-01</leafValues></_>
        <_>
          <internalNodes>
            0 -1 200 -3.4662510734051466e-03</internalNodes>
          <leafValues>
            7.9155284166336060e-01 -5.0527244806289673e-01</leafValues></_></weakClassifiers></_></stages>
  <features>
    <_>
      <rects>
        <_>
          0 0 1 8 -1.</_>
        <_>
          0 4 1 4 2.</_></rects>
      <tilted>0</tilted></_>
    <_>
      <rects>
        <_>
          0 0 2 20 -1.</_>
        <_>
          0 0 1 10 2.</_>
        <_>
          1 10 1 10 2.</_></rects>
      <tilted>0</tilted></_>
    <_>
      <rects>
        <_>
          0 0 10 10 -1.</_>
        <_>
          0 0 5 5 2.</_>
        <_>
          5 5 5 5 2.</_></rects>
      <tilted>0</tilted></_>
    <_>
      <rects>
        <_>
          0 0 20 19 -1.</_>
        <_>
          5 0 10 19 2.</_></rects>
      <tilted>0</tilted></_>
    <_>
      <rects>
        <_>
          0 1 4 18 -1.</_>
        <_>
          0 1 2 9 2.</_>
        <_>
          2 10 2 9 2.</_></rects>
      <tilted>0</tilted></_>
    <_>
      <rects>
        <_>
          0 1 8 8 -1.</_>
        <_>
          0 1 4 4 2.</_>
        <_>
          4 5 4 4 2.</_></rects>
      <tilted>0</tilted></_>
    <_>
      <rects>
        <_>
          0 2 9 14 -1.</_>
        <_>
          3 2 3 14 3.</_></rects>
      <tilted>0</tilted></_>
    <_>
      <rects>
        <_>
          0 5 2 12 -1.</_>
        <_>
          1 5 1 12 2.</_></rects>
      <tilted>0</tilted></_>
    <_>
      <rects>
        <_>
          0 6 8 6 -1.</_>
        <_>
          0 8 8 2 3.</_></rects>
      <tilted>0</tilted></_>
    <_>
      <rects>
        <_>
          0 7 19 9 -1.</_>
        <_>
          0 10 19 3 3.</_></rects>
      <tilted>0</tilted></_>
    <_>
      <rects>
        <_>
          0 8 15 8 -1.</_>
        <_>
          0 12 15 4 2.</_></rects>
      <tilted>0</tilted></_>
    <_>
      <rects>
        <_>
          0 10 4 6 -1.</_>
        <_>
          0 10 2 3 2.</_>
        <_>
          2 13 2 3 2.</_></rects>
      <tilted>0</tilted></_>
    <_>
      <rects>
        <_>
          0 11 2 6 -1.</_>
        <_>
          0 11 1 3 2.</_>
        <_>
          1 14 1 3 2.</_></rects>
      <tilted>0</tilted></_>
    <_>
      <rects>
        <_>
          0 12 6 4 -1.</_>
        <_>
          0 13 6 2 2.</_></rects>
      <tilted>0</tilted></_>
    <_>
      <rects>
        <_>
          0 12 12 3 -1.</_>
        <_>
          6 12 6 3 2.</_></rects>
      <tilted>0</tilted></_>
    <_>
      <rects>
        <_>
          0 15 12 5 -1.</_>
        <_>
          3 15 6 5 2.</_></rects>
      <tilted>0</tilted></_>
    <_>
      <rects>
        <_>
          0 15 9 3 -1.</_>
        <_>
          0 16 9 1 3.</_></rects>
      <tilted>0</tilted></_>
    <_>
      <rects>
        <_>
          1 3 4 10 -1.</_>
        <_>
          1 8 4 5 2.</_></rects>
      <tilted>0</tilted></_>
    <_>
      <rects>
        <_>
          1 5 18 12 -1.</_>
        <_>
          7 5 6 12 3.</_></rects>
      <tilted>0</tilted></_>
    <_>
      <rects>
        <_>
          1 7 18 4 -1.</_>
        <_>
          1 7 9 2 2.</_>
        <_>
          10 9 9 2 2.</_></rects>
      <tilted>0</tilted></_>
    <_>
      <rects>
        <_>
          1 8 12 8 -1.</_>
        <_>
          1 10 12 4 2.</_></rects>
      <tilted>0</tilted></_>
    <_>
      <rects>
        <_>
          1 9 8 4 -1.</_>
        <_>
          1 10 8 2 2.</_></rects>
      <tilted>0</tilted></_>
    <_>
      <rects>
        <_>
          2 2 5 9 -1.</_>
        <_>
          2 5 5 3 3.</_></rects>
      <tilted>0</tilted></_>
    <_>
      <rects>
        <_>
          2 6 10 1 -1.</_>
        <_>
          7 6 5 1 2.</_></rects>
      <tilted>0</tilted></_>
    <_>
      <rects>
        <_>
          2 8 18 11 -1.</_>
        <_>
          8 8 6 11 3.</_></rects>
      <tilted>0</tilted></_>
    <_>
      <rects>
        <_>
          2 12 18 6 -1.</_>
        <_>
          2 12 9 3 2.</_>
        <_>
          11 15 9 3 2.</_></rects>
      <tilted>0</tilted></_>
    <_>
      <rects>
        <_>
          2 13 4 2 -1.</_>
        <_>
          2 13 4 1 2.</_></rects>
      <tilted>1</tilted></_>
    <_>
      <rects>
        <_>
          2 17 15 3 -1.</_>
        <_>
          2 18 15 1 3.</_></rects>
      <tilted>0</tilted></_>
    <_>
      <rects>
        <_>
          2 18 14 2 -1.</_>
        <_>
          2 18 7 1 2.</_>
        <_>
          9 19 7 1 2.</_></rects>
      <tilted>0</tilted></_>
    <_>
      <rects>
        <_>
          3 0 12 6 -1.</_>
        <_>
          3 2 12 2 3.</_></rects>
      <tilted>0</tilted></_>
    <_>
      <rects>
        <_>
          3 5 2 3 -1.</_>
        <_>
          3 6 2 1 3.</_></rects>
      <tilted>0</tilted></_>
    <_>
      <rects>
        <_>
          3 5 3 6 -1.</_>
        <_>
          3 7 3 2 3.</_></rects>
      <tilted>0</tilted></_>
    <_>
      <rects>
        <_>
          3 7 16 11 -1.</_>
        <_>
          11 7 8 11 2.</_></rects>
      <tilted>0</tilted></_>
    <_>
      <rects>
        <_>
          3 8 4 2 -1.</_>
        <_>
          3 8 4 1 2.</_></rects>
      <tilted>1</tilted></_>
    <_>
      <rects>
        <_>
          3 12 4 3 -1.</_>
        <_>
          2 13 4 1 3.</_></rects>
      <tilted>1</tilted></_>
    <_>
      <rects>
        <_>
          3 15 1 3 -1.</_>
        <_>
          2 16 1 1 3.</_></rects>
      <tilted>1</tilted></_>
    <_>
      <rects>
        <_>
          4 0 3 4 -1.</_>
        <_>
          5 1 1 4 3.</_></rects>
      <tilted>1</tilted></_>
    <_>
      <rects>
        <_>
          4 0 10 15 -1.</_>
        <_>
          4 5 10 5 3.</_></rects>
      <tilted>0</tilted></_>
    <_>
      <rects>
        <_>
          4 0 11 2 -1.</_>
        <_>
          4 1 11 1 2.</_></rects>
      <tilted>0</tilted></_>
    <_>
      <rects>
        <_>
          4 0 11 6 -1.</_>
        <_>
          4 2 11 2 3.</_></rects>
      <tilted>0</tilted></_>
    <_>
      <rects>
        <_>
          4 3 6 16 -1.</_>
        <_>
          6 3 2 16 3.</_></rects>
      <tilted>0</tilted></_>
    <_>
      <rects>
        <_>
          4 6 2 4 -1.</_>
        <_>
          4 6 1 4 2.</_></rects>
      <tilted>1</tilted></_>
    <_>
      <rects>
        <_>
          4 8 4 3 -1.</_>
        <_>
          4 9 4 1 3.</_></rects>
      <tilted>0</tilted></_>
    <_>
      <rects>
        <_>
          4 9 7 4 -1.</_>
        <_>
          4 10 7 2 2.</_></rects>
      <tilted>0</tilted></_>
    <_>
      <rects>
        <_>
          4 11 1 3 -1.</_>
        <_>
          3 12 1 1 3.</_></rects>
      <tilted>1</tilted></_>
    <_>
      <rects>
        <_>
          4 11 11 3 -1.</_>
        <_>
          4 12 11 1 3.</_></rects>
      <tilted>0</tilted></_>
    <_>
      <rects>
        <_>
          4 12 6 2 -1.</_>
        <_>
          4 12 3 2 2.</_></rects>
      <tilted>1</tilted></_>
    <_>
      <rects>
        <_>
          5 0 3 5 -1.</_>
        <_>
          6 1 1 5 3.</_></rects>
      <tilted>1</tilted></_>
    <_>
      <rects>
        <_>
          5 0 4 5 -1.</_>
        <_>
          6 1 2 5 2.</_></rects>
      <tilted>1</tilted></_>
    <_>
      <rects>
        <_>
          5 0 8 2 -1.</_>
        <_>
          5 0 4 1 2.</_>
        <_>
          9 1 4 1 2.</_></rects>
      <tilted>0</tilted></_>
    <_>
      <rects>
        <_>
          5 0 10 2 -1.</_>
        <_>
          5 0 5 1 2.</_>
        <_>
          10 1 5 1 2.</_></rects>
      <tilted>0</tilted></_>
    <_>
      <rects>
        <_>
          5 0 15 6 -1.</_>
        <_>
          10 2 5 2 9.</_></rects>
      <tilted>0</tilted></_>
    <_>
      <rects>
        <_>
          5 0 8 2 -1.</_>
        <_>
          5 1 8 1 2.</_></rects>
      <tilted>0</tilted></_>
    <_>
      <rects>
        <_>
          5 0 10 4 -1.</_>
        <_>
          5 1 10 2 2.</_></rects>
      <tilted>0</tilted></_>
    <_>
      <rects>
        <_>
          5 1 4 1 -1.</_>
        <_>
          7 1 2 1 2.</_></rects>
      <tilted>0</tilted></_>
    <_>
      <rects>
        <_>
          5 1 15 6 -1.</_>
        <_>
          5 4 15 3 2.</_></rects>
      <tilted>0</tilted></_>
    <_>
      <rects>
        <_>
          5 2 3 4 -1.</_>
        <_>
          5 2 3 2 2.</_></rects>
      <tilted>1</tilted></_>
    <_>
      <rects>
        <_>
          5 2 10 18 -1.</_>
        <_>
          5 8 10 6 3.</_></rects>
      <tilted>0</tilted></_>
    <_>
      <rects>
        <_>
          5 10 6 6 -1.</_>
        <_>
          7 10 2 6 3.</_></rects>
      <tilted>0</tilted></_>
    <_>
      <rects>
        <_>
          5 11 2 6 -1.</_>
        <_>
          5 11 1 3 2.</_>
        <_>
          6 14 1 3 2.</_></rects>
      <tilted>0</tilted></_>
    <_>
      <rects>
        <_>
          5 13 6 4 -1.</_>
        <_>
          7 13 2 4 3.</_></rects>
      <tilted>0</tilted></_>
    <_>
      <rects>
        <_>
          6 0 4 2 -1.</_>
        <_>
          6 0 2 1 2.</_>
        <_>
          8 1 2 1 2.</_></rects>
      <tilted>0</tilted></_>
    <_>
      <rects>
        <_>
          6 0 6 2 -1.</_>
        <_>
          6 1 6 1 2.</_></rects>
      <tilted>0</tilted></_>
    <_>
      <rects>
        <_>
          6 0 12 8 -1.</_>
        <_>
          6 0 6 4 2.</_>
        <_>
          12 4 6 4 2.</_></rects>
      <tilted>0</tilted></_>
    <_>
      <rects>
        <_>
          6 0 7 16 -1.</_>
        <_>
          6 4 7 8 2.</_></rects>
      <tilted>0</tilted></_>
    <_>
      <rects>
        <_>
          6 3 5 3 -1.</_>
        <_>
          5 4 5 1 3.</_></rects>
      <tilted>1</tilted></_>
    <_>
      <rects>
        <_>
          6 4 4 8 -1.</_>
        <_>
          6 4 2 4 2.</_>
        <_>
          8 8 2 4 2.</_></rects>
      <tilted>0</tilted></_>
    <_>
      <rects>
        <_>
          6 6 1 2 -1.</_>
        <_>
          6 7 1 1 2.</_></rects>
      <tilted>0</tilted></_>
    <_>
      <rects>
        <_>
          6 7 8 3 -1.</_>
        <_>
          8 7 4 3 2.</_></rects>
      <tilted>0</tilted></_>
    <_>
      <rects>
        <_>
          6 8 2 4 -1.</_>
        <_>
          6 8 1 2 2.</_>
        <_>
          7 10 1 2 2.</_></rects>
      <tilted>0</tilted></_>
    <_>
      <rects>
        <_>
          6 8 3 6 -1.</_>
        <_>
          7 10 1 2 9.</_></rects>
      <tilted>0</tilted></_>
    <_>
      <rects>
        <_>
          6 9 2 4 -1.</_>
        <_>
          6 9 1 2 2.</_>
        <_>
          7 11 1 2 2.</_></rects>
      <tilted>0</tilted></_>
    <_>
      <rects>
        <_>
          6 9 2 6 -1.</_>
        <_>
          6 9 1 3 2.</_>
        <_>
          7 12 1 3 2.</_></rects>
      <tilted>0</tilted></_>
    <_>
      <rects>
        <_>
          6 10 9 5 -1.</_>
        <_>
          9 10 3 5 3.</_></rects>
      <tilted>0</tilted></_>
    <_>
      <rects>
        <_>
          6 11 8 1 -1.</_>
        <_>
          10 11 4 1 2.</_></rects>
      <tilted>0</tilted></_>
    <_>
      <rects>
        <_>
          6 13 9 6 -1.</_>
        <_>
          6 15 9 2 3.</_></rects>
      <tilted>0</tilted></_>
    <_>
      <rects>
        <_>
          6 14 14 2 -1.</_>
        <_>
          6 15 14 1 2.</_></rects>
      <tilted>0</tilted></_>
    <_>
      <rects>
        <_>
          6 15 3 1 -1.</_>
        <_>
          7 16 1 1 3.</_></rects>
      <tilted>1</tilted></_>
    <_>
      <rects>
        <_>
          7 0 3 7 -1.</_>
        <_>
          8 1 1 7 3.</_></rects>
      <tilted>1</tilted></_>
    <_>
      <rects>
        <_>
          7 0 4 2 -1.</_>
        <_>
          7 0 2 1 2.</_>
        <_>
          9 1 2 1 2.</_></rects>
      <tilted>0</tilted></_>
    <_>
      <rects>
        <_>
          7 0 4 4 -1.</_>
        <_>
          7 1 4 2 2.</_></rects>
      <tilted>0</tilted></_>
    <_>
      <rects>
        <_>
          7 5 4 7 -1.</_>
        <_>
          8 5 2 7 2.</_></rects>
      <tilted>0</tilted></_>
    <_>
      <rects>
        <_>
          7 5 6 2 -1.</_>
        <_>
          9 7 2 2 3.</_></rects>
      <tilted>1</tilted></_>
    <_>
      <rects>
        <_>
          7 6 3 1 -1.</_>
        <_>
          8 7 1 1 3.</_></rects>
      <tilted>1</tilted></_>
    <_>
      <rects>
        <_>
          7 6 2 6 -1.</_>
        <_>
          7 6 1 3 2.</_>
        <_>
          8 9 1 3 2.</_></rects>
      <tilted>0</tilted></_>
    <_>
      <rects>
        <_>
          7 6 4 14 -1.</_>
        <_>
          7 13 4 7 2.</_></rects>
      <tilted>0</tilted></_>
    <_>
      <rects>
        <_>
          7 8 2 4 -1.</_>
        <_>
          7 8 1 2 2.</_>
        <_>
          8 10 1 2 2.</_></rects>
      <tilted>0</tilted></_>
    <_>
      <rects>
        <_>
          7 8 2 10 -1.</_>
        <_>
          7 8 1 5 2.</_>
        <_>
          8 13 1 5 2.</_></rects>
      <tilted>0</tilted></_>
    <_>
      <rects>
        <_>
          7 8 4 4 -1.</_>
        <_>
          7 10 4 2 2.</_></rects>
      <tilted>0</tilted></_>
    <_>
      <rects>
        <_>
          7 8 8 8 -1.</_>
        <_>
          11 8 4 8 2.</_></rects>
      <tilted>0</tilted></_>
    <_>
      <rects>
        <_>
          7 9 2 2 -1.</_>
        <_>
          8 9 1 2 2.</_></rects>
      <tilted>0</tilted></_>
    <_>
      <rects>
        <_>
          7 9 2 3 -1.</_>
        <_>
          8 9 1 3 2.</_></rects>
      <tilted>0</tilted></_>
    <_>
      <rects>
        <_>
          7 9 2 6 -1.</_>
        <_>
          7 9 1 3 2.</_>
        <_>
          8 12 1 3 2.</_></rects>
      <tilted>0</tilted></_>
    <_>
      <rects>
        <_>
          7 9 3 4 -1.</_>
        <_>
          7 10 3 2 2.</_></rects>
      <tilted>0</tilted></_>
    <_>
      <rects>
        <_>
          7 11 3 1 -1.</_>
        <_>
          8 11 1 1 3.</_></rects>
      <tilted>0</tilted></_>
    <_>
      <rects>
        <_>
          7 12 4 3 -1.</_>
        <_>
          6 13 4 1 3.</_></rects>
      <tilted>1</tilted></_>
    <_>
      <rects>
        <_>
          7 13 6 4 -1.</_>
        <_>
          7 14 6 2 2.</_></rects>
      <tilted>0</tilted></_>
    <_>
      <rects>
        <_>
          8 0 4 4 -1.</_>
        <_>
          8 0 2 2 2.</_>
        <_>
          10 2 2 2 2.</_></rects>
      <tilted>0</tilted></_>
    <_>
      <rects>
        <_>
          8 1 1 3 -1.</_>
        <_>
          7 2 1 1 3.</_></rects>
      <tilted>1</tilted></_>
    <_>
      <rects>
        <_>
          8 5 4 1 -1.</_>
        <_>
          9 6 2 1 2.</_></rects>
      <tilted>1</tilted></_>
    <_>
      <rects>
        <_>
          8 5 3 3 -1.</_>
        <_>
          9 5 1 3 3.</_></rects>
      <tilted>0</tilted></_>
    <_>
      <rects>
        <_>
          8 5 2 4 -1.</_>
        <_>
          9 5 1 4 2.</_></rects>
      <tilted>0</tilted></_>
    <_>
      <rects>
        <_>
          8 5 3 7 -1.</_>
        <_>
          9 5 1 7 3.</_></rects>
      <tilted>0</tilted></_>
    <_>
      <rects>
        <_>
          8 5 2 6 -1.</_>
        <_>
          8 8 2 3 2.</_></rects>
      <tilted>0</tilted></_>
    <_>
      <rects>
        <_>
          8 7 6 2 -1.</_>
        <_>
          10 7 2 2 3.</_></rects>
      <tilted>0</tilted></_>
    <_>
      <rects>
        <_>
          8 9 2 3 -1.</_>
        <_>
          8 10 2 1 3.</_></rects>
      <tilted>0</tilted></_>
    <_>
      <rects>
        <_>
          8 9 8 3 -1.</_>
        <_>
          8 9 4 3 2.</_></rects>
      <tilted>1</tilted></_>
    <_>
      <rects>
        <_>
          8 9 5 3 -1.</_>
        <_>
          8 10 5 1 3.</_></rects>
      <tilted>0</tilted></_>
    <_>
      <rects>
        <_>
          8 9 7 3 -1.</_>
        <_>
          8 10 7 1 3.</_></rects>
      <tilted>0</tilted></_>
    <_>
      <rects>
        <_>
          8 10 3 3 -1.</_>
        <_>
          9 11 1 1 9.</_></rects>
      <tilted>0</tilted></_>
    <_>
      <rects>
        <_>
          8 10 2 4 -1.</_>
        <_>
          8 12 2 2 2.</_></rects>
      <tilted>0</tilted></_>
    <_>
      <rects>
        <_>
          8 10 3 4 -1.</_>
        <_>
          8 10 3 2 2.</_></rects>
      <tilted>1</tilted></_>
    <_>
      <rects>
        <_>
          8 11 3 2 -1.</_>
        <_>
          9 11 1 2 3.</_></rects>
      <tilted>0</tilted></_>
    <_>
      <rects>
        <_>
          8 18 8 2 -1.</_>
        <_>
          8 18 4 1 2.</_>
        <_>
          12 19 4 1 2.</_></rects>
      <tilted>0</tilted></_>
    <_>
      <rects>
        <_>
          8 19 12 1 -1.</_>
        <_>
          12 19 4 1 3.</_></rects>
      <tilted>0</tilted></_>
    <_>
      <rects>
        <_>
          9 2 2 3 -1.</_>
        <_>
          9 2 1 3 2.</_></rects>
      <tilted>1</tilted></_>
    <_>
      <rects>
        <_>
          9 2 2 9 -1.</_>
        <_>
          9 2 1 9 2.</_></rects>
      <tilted>1</tilted></_>
    <_>
      <rects>
        <_>
          9 3 3 14 -1.</_>
        <_>
          9 10 3 7 2.</_></rects>
      <tilted>0</tilted></_>
    <_>
      <rects>
        <_>
          9 4 2 4 -1.</_>
        <_>
          10 4 1 4 2.</_></rects>
      <tilted>0</tilted></_>
    <_>
      <rects>
        <_>
          9 4 4 14 -1.</_>
        <_>
          11 4 2 14 2.</_></rects>
      <tilted>0</tilted></_>
    <_>
      <rects>
        <_>
          9 6 3 6 -1.</_>
        <_>
          9 9 3 3 2.</_></rects>
      <tilted>0</tilted></_>
    <_>
      <rects>
        <_>
          9 8 4 1 -1.</_>
        <_>
          9 8 2 1 2.</_></rects>
      <tilted>1</tilted></_>
    <_>
      <rects>
        <_>
          9 8 7 8 -1.</_>
        <_>
          9 12 7 4 2.</_></rects>
      <tilted>0</tilted></_>
    <_>
      <rects>
        <_>
          9 9 3 2 -1.</_>
        <_>
          10 9 1 2 3.</_></rects>
      <tilted>0</tilted></_>
    <_>
      <rects>
        <_>
          9 9 2 3 -1.</_>
        <_>
          9 10 2 1 3.</_></rects>
      <tilted>0</tilted></_>
    <_>
      <rects>
        <_>
          9 9 2 6 -1.</_>
        <_>
          9 11 2 2 3.</_></rects>
      <tilted>0</tilted></_>
    <_>
      <rects>
        <_>
          9 9 6 4 -1.</_>
        <_>
          9 9 3 4 2.</_></rects>
      <tilted>1</tilted></_>
    <_>
      <rects>
        <_>
          9 10 3 6 -1.</_>
        <_>
          9 13 3 3 2.</_></rects>
      <tilted>0</tilted></_>
    <_>
      <rects>
        <_>
          9 11 3 3 -1.</_>
        <_>
          10 11 1 3 3.</_></rects>
      <tilted>0</tilted></_>
    <_>
      <rects>
        <_>
          9 11 4 4 -1.</_>
        <_>
          9 11 2 2 2.</_>
        <_>
          11 13 2 2 2.</_></rects>
      <tilted>0</tilted></_>
    <_>
      <rects>
        <_>
          9 12 6 3 -1.</_>
        <_>
          11 13 2 1 9.</_></rects>
      <tilted>0</tilted></_>
    <_>
      <rects>
        <_>
          9 13 2 4 -1.</_>
        <_>
          9 15 2 2 2.</_></rects>
      <tilted>0</tilted></_>
    <_>
      <rects>
        <_>
          9 13 8 4 -1.</_>
        <_>
          9 13 4 2 2.</_>
        <_>
          13 15 4 2 2.</_></rects>
      <tilted>0</tilted></_>
    <_>
      <rects>
        <_>
          9 18 10 2 -1.</_>
        <_>
          9 18 5 1 2.</_>
        <_>
          14 19 5 1 2.</_></rects>
      <tilted>0</tilted></_>
    <_>
      <rects>
        <_>
          10 4 4 2 -1.</_>
        <_>
          10 4 2 2 2.</_></rects>
      <tilted>1</tilted></_>
    <_>
      <rects>
        <_>
          10 4 10 4 -1.</_>
        <_>
          10 4 5 4 2.</_></rects>
      <tilted>1</tilted></_>
    <_>
      <rects>
        <_>
          10 7 4 5 -1.</_>
        <_>
          11 7 2 5 2.</_></rects>
      <tilted>0</tilted></_>
    <_>
      <rects>
        <_>
          10 8 4 1 -1.</_>
        <_>
          10 8 2 1 2.</_></rects>
      <tilted>1</tilted></_>
    <_>
      <rects>
        <_>
          10 8 4 3 -1.</_>
        <_>
          10 8 2 3 2.</_></rects>
      <tilted>1</tilted></_>
    <_>
      <rects>
        <_>
          10 9 2 1 -1.</_>
        <_>
          11 9 1 1 2.</_></rects>
      <tilted>0</tilted></_>
    <_>
      <rects>
        <_>
          10 10 4 2 -1.</_>
        <_>
          11 10 2 2 2.</_></rects>
      <tilted>0</tilted></_>
    <_>
      <rects>
        <_>
          10 10 6 4 -1.</_>
        <_>
          10 10 3 4 2.</_></rects>
      <tilted>1</tilted></_>
    <_>
      <rects>
        <_>
          10 11 3 3 -1.</_>
        <_>
          11 12 1 1 9.</_></rects>
      <tilted>0</tilted></_>
    <_>
      <rects>
        <_>
          10 11 2 3 -1.</_>
        <_>
          10 12 2 1 3.</_></rects>
      <tilted>0</tilted></_>
    <_>
      <rects>
        <_>
          10 11 2 4 -1.</_>
        <_>
          10 12 2 2 2.</_></rects>
      <tilted>0</tilted></_>
    <_>
      <rects>
        <_>
          10 12 3 1 -1.</_>
        <_>
          11 12 1 1 3.</_></rects>
      <tilted>0</tilted></_>
    <_>
      <rects>
        <_>
          10 13 3 6 -1.</_>
        <_>
          10 15 3 2 3.</_></rects>
      <tilted>0</tilted></_>
    <_>
      <rects>
        <_>
          10 14 2 2 -1.</_>
        <_>
          10 15 2 1 2.</_></rects>
      <tilted>0</tilted></_>
    <_>
      <rects>
        <_>
          10 14 4 2 -1.</_>
        <_>
          10 14 2 2 2.</_></rects>
      <tilted>1</tilted></_>
    <_>
      <rects>
        <_>
          10 15 1 3 -1.</_>
        <_>
          10 16 1 1 3.</_></rects>
      <tilted>0</tilted></_>
    <_>
      <rects>
        <_>
          11 1 4 11 -1.</_>
        <_>
          12 2 2 11 2.</_></rects>
      <tilted>1</tilted></_>
    <_>
      <rects>
        <_>
          11 2 3 5 -1.</_>
        <_>
          12 2 1 5 3.</_></rects>
      <tilted>0</tilted></_>
    <_>
      <rects>
        <_>
          11 5 3 1 -1.</_>
        <_>
          12 5 1 1 3.</_></rects>
      <tilted>0</tilted></_>
    <_>
      <rects>
        <_>
          11 5 1 2 -1.</_>
        <_>
          11 5 1 1 2.</_></rects>
      <tilted>1</tilted></_>
    <_>
      <rects>
        <_>
          11 6 3 4 -1.</_>
        <_>
          11 6 3 2 2.</_></rects>
      <tilted>1</tilted></_>
    <_>
      <rects>
        <_>
          11 9 2 2 -1.</_>
        <_>
          11 9 2 1 2.</_></rects>
      <tilted>1</tilted></_>
    <_>
      <rects>
        <_>
          11 10 3 3 -1.</_>
        <_>
          12 11 1 1 9.</_></rects>
      <tilted>0</tilted></_>
    <_>
      <rects>
        <_>
          11 10 3 2 -1.</_>
        <_>
          12 10 1 2 3.</_></rects>
      <tilted>0</tilted></_>
    <_>
      <rects>
        <_>
          11 10 4 1 -1.</_>
        <_>
          11 10 2 1 2.</_></rects>
      <tilted>1</tilted></_>
    <_>
      <rects>
        <_>
          11 11 2 6 -1.</_>
        <_>
          11 14 2 3 2.</_></rects>
      <tilted>0</tilted></_>
    <_>
      <rects>
        <_>
          11 11 6 4 -1.</_>
        <_>
          11 11 3 2 2.</_>
        <_>
          14 13 3 2 2.</_></rects>
      <tilted>0</tilted></_>
    <_>
      <rects>
        <_>
          11 14 2 2 -1.</_>
        <_>
          12 14 1 2 2.</_></rects>
      <tilted>0</tilted></_>
    <_>
      <rects>
        <_>
          12 0 8 10 -1.</_>
        <_>
          12 0 4 5 2.</_>
        <_>
          16 5 4 5 2.</_></rects>
      <tilted>0</tilted></_>
    <_>
      <rects>
        <_>
          12 0 8 3 -1.</_>
        <_>
          11 1 8 1 3.</_></rects>
      <tilted>1</tilted></_>
    <_>
      <rects>
        <_>
          12 1 8 4 -1.</_>
        <_>
          12 1 4 2 2.</_>
        <_>
          16 3 4 2 2.</_></rects>
      <tilted>0</tilted></_>
    <_>
      <rects>
        <_>
          12 2 6 11 -1.</_>
        <_>
          15 2 3 11 2.</_></rects>
      <tilted>0</tilted></_>
    <_>
      <rects>
        <_>
          12 3 2 10 -1.</_>
        <_>
          12 3 1 5 2.</_>
        <_>
          13 8 1 5 2.</_></rects>
      <tilted>0</tilted></_>
    <_>
      <rects>
        <_>
          12 5 1 2 -1.</_>
        <_>
          12 5 1 1 2.</_></rects>
      <tilted>1</tilted></_>
    <_>
      <rects>
        <_>
          12 6 1 2 -1.</_>
        <_>
          12 6 1 1 2.</_></rects>
      <tilted>1</tilted></_>
    <_>
      <rects>
        <_>
          12 6 2 6 -1.</_>
        <_>
          12 6 1 3 2.</_>
        <_>
          13 9 1 3 2.</_></rects>
      <tilted>0</tilted></_>
    <_>
      <rects>
        <_>
          12 6 2 4 -1.</_>
        <_>
          12 6 2 2 2.</_></rects>
      <tilted>1</tilted></_>
    <_>
      <rects>
        <_>
          12 7 2 4 -1.</_>
        <_>
          12 7 1 2 2.</_>
        <_>
          13 9 1 2 2.</_></rects>
      <tilted>0</tilted></_>
    <_>
      <rects>
        <_>
          12 8 2 5 -1.</_>
        <_>
          13 8 1 5 2.</_></rects>
      <tilted>0</tilted></_>
    <_>
      <rects>
        <_>
          12 9 6 8 -1.</_>
        <_>
          14 9 2 8 3.</_></rects>
      <tilted>0</tilted></_>
    <_>
      <rects>
        <_>
          12 10 4 5 -1.</_>
        <_>
          12 10 2 5 2.</_></rects>
      <tilted>1</tilted></_>
    <_>
      <rects>
        <_>
          12 14 3 2 -1.</_>
        <_>
          13 15 1 2 3.</_></rects>
      <tilted>1</tilted></_>
    <_>
      <rects>
        <_>
          12 16 1 4 -1.</_>
        <_>
          12 17 1 2 2.</_></rects>
      <tilted>0</tilted></_>
    <_>
      <rects>
        <_>
          13 0 3 6 -1.</_>
        <_>
          14 1 1 6 3.</_></rects>
      <tilted>1</tilted></_>
    <_>
      <rects>
        <_>
          13 3 2 6 -1.</_>
        <_>
          14 3 1 6 2.</_></rects>
      <tilted>0</tilted></_>
    <_>
      <rects>
        <_>
          13 7 4 13 -1.</_>
        <_>
          14 7 2 13 2.</_></rects>
      <tilted>0</tilted></_>
    <_>
      <rects>
        <_>
          13 7 2 4 -1.</_>
        <_>
          13 7 2 2 2.</_></rects>
      <tilted>1</tilted></_>
    <_>
      <rects>
        <_>
          13 7 4 4 -1.</_>
        <_>
          13 7 2 4 2.</_></rects>
      <tilted>1</tilted></_>
    <_>
      <rects>
        <_>
          13 7 6 4 -1.</_>
        <_>
          15 9 2 4 3.</_></rects>
      <tilted>1</tilted></_>
    <_>
      <rects>
        <_>
          13 8 2 4 -1.</_>
        <_>
          13 8 1 2 2.</_>
        <_>
          14 10 1 2 2.</_></rects>
      <tilted>0</tilted></_>
    <_>
      <rects>
        <_>
          13 8 1 4 -1.</_>
        <_>
          13 8 1 2 2.</_></rects>
      <tilted>1</tilted></_>
    <_>
      <rects>
        <_>
          13 8 2 4 -1.</_>
        <_>
          13 8 2 2 2.</_></rects>
      <tilted>1</tilted></_>
    <_>
      <rects>
        <_>
          13 13 1 2 -1.</_>
        <_>
          13 13 1 1 2.</_></rects>
      <tilted>1</tilted></_>
    <_>
      <rects>
        <_>
          14 7 1 3 -1.</_>
        <_>
          14 8 1 1 3.</_></rects>
      <tilted>0</tilted></_>
    <_>
      <rects>
        <_>
          14 8 2 4 -1.</_>
        <_>
          15 8 1 4 2.</_></rects>
      <tilted>0</tilted></_>
    <_>
      <rects>
        <_>
          14 10 1 4 -1.</_>
        <_>
          14 11 1 2 2.</_></rects>
      <tilted>0</tilted></_>
    <_>
      <rects>
        <_>
          14 11 3 6 -1.</_>
        <_>
          15 11 1 6 3.</_></rects>
      <tilted>0</tilted></_>
    <_>
      <rects>
        <_>
          14 13 3 1 -1.</_>
        <_>
          15 14 1 1 3.</_></rects>
      <tilted>1</tilted></_>
    <_>
      <rects>
        <_>
          14 13 2 4 -1.</_>
        <_>
          14 13 1 2 2.</_>
        <_>
          15 15 1 2 2.</_></rects>
      <tilted>0</tilted></_>
    <_>
      <rects>
        <_>
          15 0 3 9 -1.</_>
        <_>
          16 1 1 9 3.</_></rects>
      <tilted>1</tilted></_>
    <_>
      <rects>
        <_>
          15 9 5 6 -1.</_>
        <_>
          15 12 5 3 2.</_></rects>
      <tilted>0</tilted></_>
    <_>
      <rects>
        <_>
          15 10 3 6 -1.</_>
        <_>
          15 10 3 3 2.</_></rects>
      <tilted>1</tilted></_>
    <_>
      <rects>
        <_>
          16 1 2 12 -1.</_>
        <_>
          16 7 2 6 2.</_></rects>
      <tilted>0</tilted></_>
    <_>
      <rects>
        <_>
          16 14 1 4 -1.</_>
        <_>
          16 14 1 2 2.</_></rects>
      <tilted>1</tilted></_>
    <_>
      <rects>
        <_>
          16 14 4 6 -1.</_>
        <_>
          16 14 2 3 2.</_>
        <_>
          18 17 2 3 2.</_></rects>
      <tilted>0</tilted></_>
    <_>
      <rects>
        <_>
          17 4 2 8 -1.</_>
        <_>
          17 4 1 8 2.</_></rects>
      <tilted>1</tilted></_>
    <_>
      <rects>
        <_>
          17 4 3 9 -1.</_>
        <_>
          17 7 3 3 3.</_></rects>
      <tilted>0</tilted></_>
    <_>
      <rects>
        <_>
          17 6 3 8 -1.</_>
        <_>
          17 6 3 4 2.</_></rects>
      <tilted>1</tilted></_>
    <_>
      <rects>
        <_>
          17 9 2 4 -1.</_>
        <_>
          17 11 2 2 2.</_></rects>
      <tilted>0</tilted></_>
    <_>
      <rects>
        <_>
          18 3 2 8 -1.</_>
        <_>
          18 3 1 4 2.</_>
        <_>
          19 7 1 4 2.</_></rects>
      <tilted>0</tilted></_>
    <_>
      <rects>
        <_>
          18 3 2 16 -1.</_>
        <_>
          18 3 1 8 2.</_>
        <_>
          19 11 1 8 2.</_></rects>
      <tilted>0</tilted></_></features></cascade>
</opencv_storage>
